digraph Tree {
node [shape=box, style="filled, rounded", color="black", fontname="helvetica"] ;
edge [fontname="helvetica"] ;
0 [label=<age &le; 47.5<br/>entropy = 0.957<br/>samples = 718<br/>value = [699, 426]<br/>class = 1>, fillcolor="#f5ceb2"] ;
1 [label=<genetic_risk &le; 1.5<br/>entropy = 0.777<br/>samples = 309<br/>value = [380, 113]<br/>class = 1>, fillcolor="#eda674"] ;
0 -> 1 [labeldistance=2.5, labelangle=45, headlabel="True"] ;
2 [label=<alcohol_intake &le; 2.644<br/>entropy = 0.67<br/>samples = 282<br/>value = [371, 79]<br/>class = 1>, fillcolor="#eb9c63"] ;
1 -> 2 ;
3 [label=<bmi &le; 24.755<br/>entropy = 0.407<br/>samples = 156<br/>value = [226, 20]<br/>class = 1>, fillcolor="#e78c4b"] ;
2 -> 3 ;
4 [label=<entropy = 0.0<br/>samples = 66<br/>value = [101, 0]<br/>class = 1>, fillcolor="#e58139"] ;
3 -> 4 ;
5 [label=<cancer_history &le; 0.5<br/>entropy = 0.579<br/>samples = 90<br/>value = [125.0, 20.0]<br/>class = 1>, fillcolor="#e99559"] ;
3 -> 5 ;
6 [label=<alcohol_intake &le; 2.354<br/>entropy = 0.375<br/>samples = 78<br/>value = [115, 9]<br/>class = 1>, fillcolor="#e78b48"] ;
5 -> 6 ;
7 [label=<age &le; 41.5<br/>entropy = 0.327<br/>samples = 72<br/>value = [110, 7]<br/>class = 1>, fillcolor="#e78946"] ;
6 -> 7 ;
8 [label=<age &le; 38.5<br/>entropy = 0.421<br/>samples = 47<br/>value = [75.0, 7.0]<br/>class = 1>, fillcolor="#e78d4b"] ;
7 -> 8 ;
9 [label=<alcohol_intake &le; 1.514<br/>entropy = 0.313<br/>samples = 40<br/>value = [67, 4]<br/>class = 1>, fillcolor="#e78945"] ;
8 -> 9 ;
10 [label=<bmi &le; 28.924<br/>entropy = 0.503<br/>samples = 18<br/>value = [32, 4]<br/>class = 1>, fillcolor="#e89152"] ;
9 -> 10 ;
11 [label=<entropy = 1.0<br/>samples = 4<br/>value = [3, 3]<br/>class = 1>, fillcolor="#ffffff"] ;
10 -> 11 ;
12 [label=<smoking &le; 0.5<br/>entropy = 0.211<br/>samples = 14<br/>value = [29, 1]<br/>class = 1>, fillcolor="#e68540"] ;
10 -> 12 ;
13 [label=<entropy = 0.0<br/>samples = 9<br/>value = [18, 0]<br/>class = 1>, fillcolor="#e58139"] ;
12 -> 13 ;
14 [label=<entropy = 0.414<br/>samples = 5<br/>value = [11, 1]<br/>class = 1>, fillcolor="#e78c4b"] ;
12 -> 14 ;
15 [label=<entropy = 0.0<br/>samples = 22<br/>value = [35, 0]<br/>class = 1>, fillcolor="#e58139"] ;
9 -> 15 ;
16 [label=<bmi &le; 28.279<br/>entropy = 0.845<br/>samples = 7<br/>value = [8, 3]<br/>class = 1>, fillcolor="#efb083"] ;
8 -> 16 ;
17 [label=<entropy = 0.0<br/>samples = 3<br/>value = [4, 0]<br/>class = 1>, fillcolor="#e58139"] ;
16 -> 17 ;
18 [label=<entropy = 0.985<br/>samples = 4<br/>value = [4, 3]<br/>class = 1>, fillcolor="#f8e0ce"] ;
16 -> 18 ;
19 [label=<entropy = 0.0<br/>samples = 25<br/>value = [35, 0]<br/>class = 1>, fillcolor="#e58139"] ;
7 -> 19 ;
20 [label=<age &le; 24.0<br/>entropy = 0.863<br/>samples = 6<br/>value = [5, 2]<br/>class = 1>, fillcolor="#efb388"] ;
6 -> 20 ;
21 [label=<entropy = 0.0<br/>samples = 3<br/>value = [3, 0]<br/>class = 1>, fillcolor="#e58139"] ;
20 -> 21 ;
22 [label=<entropy = 1.0<br/>samples = 3<br/>value = [2, 2]<br/>class = 1>, fillcolor="#ffffff"] ;
20 -> 22 ;
23 [label=<bmi &le; 30.405<br/>entropy = 0.998<br/>samples = 12<br/>value = [10, 11]<br/>class = 0>, fillcolor="#edf6fd"] ;
5 -> 23 ;
24 [label=<entropy = 0.0<br/>samples = 3<br/>value = [0, 5]<br/>class = 0>, fillcolor="#399de5"] ;
23 -> 24 ;
25 [label=<bmi &le; 33.07<br/>entropy = 0.954<br/>samples = 9<br/>value = [10, 6]<br/>class = 1>, fillcolor="#f5cdb0"] ;
23 -> 25 ;
26 [label=<entropy = 0.0<br/>samples = 3<br/>value = [7, 0]<br/>class = 1>, fillcolor="#e58139"] ;
25 -> 26 ;
27 [label=<physical_activity &le; 6.004<br/>entropy = 0.918<br/>samples = 6<br/>value = [3, 6]<br/>class = 0>, fillcolor="#9ccef2"] ;
25 -> 27 ;
28 [label=<entropy = 0.811<br/>samples = 3<br/>value = [1, 3]<br/>class = 0>, fillcolor="#7bbeee"] ;
27 -> 28 ;
29 [label=<entropy = 0.971<br/>samples = 3<br/>value = [2, 3]<br/>class = 0>, fillcolor="#bddef6"] ;
27 -> 29 ;
30 [label=<smoking &le; 0.5<br/>entropy = 0.868<br/>samples = 126<br/>value = [145.0, 59.0]<br/>class = 1>, fillcolor="#f0b48a"] ;
2 -> 30 ;
31 [label=<age &le; 23.5<br/>entropy = 0.702<br/>samples = 90<br/>value = [119, 28]<br/>class = 1>, fillcolor="#eb9f68"] ;
30 -> 31 ;
32 [label=<bmi &le; 35.491<br/>entropy = 0.954<br/>samples = 14<br/>value = [15, 9]<br/>class = 1>, fillcolor="#f5cdb0"] ;
31 -> 32 ;
33 [label=<cancer_history &le; 0.5<br/>entropy = 0.989<br/>samples = 10<br/>value = [7, 9]<br/>class = 0>, fillcolor="#d3e9f9"] ;
32 -> 33 ;
34 [label=<physical_activity &le; 1.837<br/>entropy = 0.98<br/>samples = 7<br/>value = [7, 5]<br/>class = 1>, fillcolor="#f8dbc6"] ;
33 -> 34 ;
35 [label=<entropy = 0.971<br/>samples = 3<br/>value = [2, 3]<br/>class = 0>, fillcolor="#bddef6"] ;
34 -> 35 ;
36 [label=<entropy = 0.863<br/>samples = 4<br/>value = [5, 2]<br/>class = 1>, fillcolor="#efb388"] ;
34 -> 36 ;
37 [label=<entropy = 0.0<br/>samples = 3<br/>value = [0, 4]<br/>class = 0>, fillcolor="#399de5"] ;
33 -> 37 ;
38 [label=<entropy = 0.0<br/>samples = 4<br/>value = [8, 0]<br/>class = 1>, fillcolor="#e58139"] ;
32 -> 38 ;
39 [label=<cancer_history &le; 0.5<br/>entropy = 0.621<br/>samples = 76<br/>value = [104, 19]<br/>class = 1>, fillcolor="#ea985d"] ;
31 -> 39 ;
40 [label=<physical_activity &le; 2.029<br/>entropy = 0.235<br/>samples = 64<br/>value = [100, 4]<br/>class = 1>, fillcolor="#e68641"] ;
39 -> 40 ;
41 [label=<alcohol_intake &le; 3.708<br/>entropy = 0.837<br/>samples = 8<br/>value = [11, 4]<br/>class = 1>, fillcolor="#eeaf81"] ;
40 -> 41 ;
42 [label=<entropy = 0.722<br/>samples = 5<br/>value = [8, 2]<br/>class = 1>, fillcolor="#eca06a"] ;
41 -> 42 ;
43 [label=<entropy = 0.971<br/>samples = 3<br/>value = [3, 2]<br/>class = 1>, fillcolor="#f6d5bd"] ;
41 -> 43 ;
44 [label=<entropy = 0.0<br/>samples = 56<br/>value = [89, 0]<br/>class = 1>, fillcolor="#e58139"] ;
40 -> 44 ;
45 [label=<age &le; 33.0<br/>entropy = 0.742<br/>samples = 12<br/>value = [4, 15]<br/>class = 0>, fillcolor="#6eb7ec"] ;
39 -> 45 ;
46 [label=<gender &le; 0.5<br/>entropy = 0.954<br/>samples = 6<br/>value = [3, 5]<br/>class = 0>, fillcolor="#b0d8f5"] ;
45 -> 46 ;
47 [label=<entropy = 0.971<br/>samples = 3<br/>value = [3, 2]<br/>class = 1>, fillcolor="#f6d5bd"] ;
46 -> 47 ;
48 [label=<entropy = 0.0<br/>samples = 3<br/>value = [0, 3]<br/>class = 0>, fillcolor="#399de5"] ;
46 -> 48 ;
49 [label=<alcohol_intake &le; 3.245<br/>entropy = 0.439<br/>samples = 6<br/>value = [1, 10]<br/>class = 0>, fillcolor="#4da7e8"] ;
45 -> 49 ;
50 [label=<entropy = 0.0<br/>samples = 3<br/>value = [0, 8]<br/>class = 0>, fillcolor="#399de5"] ;
49 -> 50 ;
51 [label=<entropy = 0.918<br/>samples = 3<br/>value = [1, 2]<br/>class = 0>, fillcolor="#9ccef2"] ;
49 -> 51 ;
52 [label=<bmi &le; 24.972<br/>entropy = 0.994<br/>samples = 36<br/>value = [26, 31]<br/>class = 0>, fillcolor="#dfeffb"] ;
30 -> 52 ;
53 [label=<age &le; 41.0<br/>entropy = 0.811<br/>samples = 18<br/>value = [18, 6]<br/>class = 1>, fillcolor="#eeab7b"] ;
52 -> 53 ;
54 [label=<physical_activity &le; 7.083<br/>entropy = 0.918<br/>samples = 13<br/>value = [12, 6]<br/>class = 1>, fillcolor="#f2c09c"] ;
53 -> 54 ;
55 [label=<physical_activity &le; 5.013<br/>entropy = 0.985<br/>samples = 10<br/>value = [8, 6]<br/>class = 1>, fillcolor="#f8e0ce"] ;
54 -> 55 ;
56 [label=<age &le; 26.0<br/>entropy = 0.881<br/>samples = 7<br/>value = [7, 3]<br/>class = 1>, fillcolor="#f0b78e"] ;
55 -> 56 ;
57 [label=<entropy = 0.811<br/>samples = 3<br/>value = [1, 3]<br/>class = 0>, fillcolor="#7bbeee"] ;
56 -> 57 ;
58 [label=<entropy = 0.0<br/>samples = 4<br/>value = [6, 0]<br/>class = 1>, fillcolor="#e58139"] ;
56 -> 58 ;
59 [label=<entropy = 0.811<br/>samples = 3<br/>value = [1, 3]<br/>class = 0>, fillcolor="#7bbeee"] ;
55 -> 59 ;
60 [label=<entropy = 0.0<br/>samples = 3<br/>value = [4, 0]<br/>class = 1>, fillcolor="#e58139"] ;
54 -> 60 ;
61 [label=<entropy = 0.0<br/>samples = 5<br/>value = [6, 0]<br/>class = 1>, fillcolor="#e58139"] ;
53 -> 61 ;
62 [label=<physical_activity &le; 4.905<br/>entropy = 0.799<br/>samples = 18<br/>value = [8, 25]<br/>class = 0>, fillcolor="#78bced"] ;
52 -> 62 ;
63 [label=<physical_activity &le; 2.587<br/>entropy = 0.982<br/>samples = 11<br/>value = [8, 11]<br/>class = 0>, fillcolor="#c9e4f8"] ;
62 -> 63 ;
64 [label=<entropy = 0.0<br/>samples = 5<br/>value = [0, 9]<br/>class = 0>, fillcolor="#399de5"] ;
63 -> 64 ;
65 [label=<bmi &le; 31.445<br/>entropy = 0.722<br/>samples = 6<br/>value = [8, 2]<br/>class = 1>, fillcolor="#eca06a"] ;
63 -> 65 ;
66 [label=<entropy = 1.0<br/>samples = 3<br/>value = [2, 2]<br/>class = 1>, fillcolor="#ffffff"] ;
65 -> 66 ;
67 [label=<entropy = 0.0<br/>samples = 3<br/>value = [6, 0]<br/>class = 1>, fillcolor="#e58139"] ;
65 -> 67 ;
68 [label=<entropy = 0.0<br/>samples = 7<br/>value = [0, 14]<br/>class = 0>, fillcolor="#399de5"] ;
62 -> 68 ;
69 [label=<smoking &le; 0.5<br/>entropy = 0.74<br/>samples = 27<br/>value = [9, 34]<br/>class = 0>, fillcolor="#6db7ec"] ;
1 -> 69 ;
70 [label=<bmi &le; 28.619<br/>entropy = 0.894<br/>samples = 20<br/>value = [9, 20]<br/>class = 0>, fillcolor="#92c9f1"] ;
69 -> 70 ;
71 [label=<cancer_history &le; 0.5<br/>entropy = 0.971<br/>samples = 13<br/>value = [9, 6]<br/>class = 1>, fillcolor="#f6d5bd"] ;
70 -> 71 ;
72 [label=<physical_activity &le; 4.169<br/>entropy = 0.811<br/>samples = 10<br/>value = [9, 3]<br/>class = 1>, fillcolor="#eeab7b"] ;
71 -> 72 ;
73 [label=<alcohol_intake &le; 2.166<br/>entropy = 0.985<br/>samples = 6<br/>value = [4, 3]<br/>class = 1>, fillcolor="#f8e0ce"] ;
72 -> 73 ;
74 [label=<entropy = 1.0<br/>samples = 3<br/>value = [2, 2]<br/>class = 1>, fillcolor="#ffffff"] ;
73 -> 74 ;
75 [label=<entropy = 0.918<br/>samples = 3<br/>value = [2, 1]<br/>class = 1>, fillcolor="#f2c09c"] ;
73 -> 75 ;
76 [label=<entropy = 0.0<br/>samples = 4<br/>value = [5, 0]<br/>class = 1>, fillcolor="#e58139"] ;
72 -> 76 ;
77 [label=<entropy = 0.0<br/>samples = 3<br/>value = [0, 3]<br/>class = 0>, fillcolor="#399de5"] ;
71 -> 77 ;
78 [label=<entropy = 0.0<br/>samples = 7<br/>value = [0, 14]<br/>class = 0>, fillcolor="#399de5"] ;
70 -> 78 ;
79 [label=<entropy = 0.0<br/>samples = 7<br/>value = [0, 14]<br/>class = 0>, fillcolor="#399de5"] ;
69 -> 79 ;
80 [label=<cancer_history &le; 0.5<br/>entropy = 1.0<br/>samples = 409<br/>value = [319, 313]<br/>class = 1>, fillcolor="#fffdfb"] ;
0 -> 80 [labeldistance=2.5, labelangle=-45, headlabel="False"] ;
81 [label=<genetic_risk &le; 1.5<br/>entropy = 0.976<br/>samples = 350<br/>value = [314, 217]<br/>class = 1>, fillcolor="#f7d8c2"] ;
80 -> 81 ;
82 [label=<gender &le; 0.5<br/>entropy = 0.937<br/>samples = 316<br/>value = [309, 169]<br/>class = 1>, fillcolor="#f3c6a5"] ;
81 -> 82 ;
83 [label=<alcohol_intake &le; 2.702<br/>entropy = 0.663<br/>samples = 136<br/>value = [168, 35]<br/>class = 1>, fillcolor="#ea9b62"] ;
82 -> 83 ;
84 [label=<alcohol_intake &le; 0.89<br/>entropy = 0.365<br/>samples = 80<br/>value = [120, 9]<br/>class = 1>, fillcolor="#e78a48"] ;
83 -> 84 ;
85 [label=<physical_activity &le; 7.837<br/>entropy = 0.135<br/>samples = 32<br/>value = [52, 1]<br/>class = 1>, fillcolor="#e6833d"] ;
84 -> 85 ;
86 [label=<entropy = 0.0<br/>samples = 22<br/>value = [39, 0]<br/>class = 1>, fillcolor="#e58139"] ;
85 -> 86 ;
87 [label=<physical_activity &le; 8.298<br/>entropy = 0.371<br/>samples = 10<br/>value = [13, 1]<br/>class = 1>, fillcolor="#e78b48"] ;
85 -> 87 ;
88 [label=<entropy = 0.918<br/>samples = 3<br/>value = [2, 1]<br/>class = 1>, fillcolor="#f2c09c"] ;
87 -> 88 ;
89 [label=<entropy = 0.0<br/>samples = 7<br/>value = [11, 0]<br/>class = 1>, fillcolor="#e58139"] ;
87 -> 89 ;
90 [label=<alcohol_intake &le; 1.107<br/>entropy = 0.485<br/>samples = 48<br/>value = [68, 8]<br/>class = 1>, fillcolor="#e89050"] ;
84 -> 90 ;
91 [label=<smoking &le; 0.5<br/>entropy = 0.996<br/>samples = 9<br/>value = [7, 6]<br/>class = 1>, fillcolor="#fbede3"] ;
90 -> 91 ;
92 [label=<entropy = 0.811<br/>samples = 5<br/>value = [6, 2]<br/>class = 1>, fillcolor="#eeab7b"] ;
91 -> 92 ;
93 [label=<entropy = 0.722<br/>samples = 4<br/>value = [1, 4]<br/>class = 0>, fillcolor="#6ab6ec"] ;
91 -> 93 ;
94 [label=<age &le; 57.5<br/>entropy = 0.203<br/>samples = 39<br/>value = [61, 2]<br/>class = 1>, fillcolor="#e6853f"] ;
90 -> 94 ;
95 [label=<alcohol_intake &le; 1.642<br/>entropy = 0.381<br/>samples = 17<br/>value = [25, 2]<br/>class = 1>, fillcolor="#e78b49"] ;
94 -> 95 ;
96 [label=<entropy = 0.0<br/>samples = 5<br/>value = [9, 0]<br/>class = 1>, fillcolor="#e58139"] ;
95 -> 96 ;
97 [label=<bmi &le; 27.371<br/>entropy = 0.503<br/>samples = 12<br/>value = [16, 2]<br/>class = 1>, fillcolor="#e89152"] ;
95 -> 97 ;
98 [label=<entropy = 0.0<br/>samples = 7<br/>value = [11, 0]<br/>class = 1>, fillcolor="#e58139"] ;
97 -> 98 ;
99 [label=<entropy = 0.863<br/>samples = 5<br/>value = [5, 2]<br/>class = 1>, fillcolor="#efb388"] ;
97 -> 99 ;
100 [label=<entropy = 0.0<br/>samples = 22<br/>value = [36, 0]<br/>class = 1>, fillcolor="#e58139"] ;
94 -> 100 ;
101 [label=<bmi &le; 26.88<br/>entropy = 0.935<br/>samples = 56<br/>value = [48, 26]<br/>class = 1>, fillcolor="#f3c5a4"] ;
83 -> 101 ;
102 [label=<genetic_risk &le; 0.5<br/>entropy = 0.544<br/>samples = 21<br/>value = [28, 4]<br/>class = 1>, fillcolor="#e99355"] ;
101 -> 102 ;
103 [label=<entropy = 0.0<br/>samples = 13<br/>value = [21, 0]<br/>class = 1>, fillcolor="#e58139"] ;
102 -> 103 ;
104 [label=<age &le; 62.5<br/>entropy = 0.946<br/>samples = 8<br/>value = [7, 4]<br/>class = 1>, fillcolor="#f4c9aa"] ;
102 -> 104 ;
105 [label=<entropy = 0.65<br/>samples = 5<br/>value = [5, 1]<br/>class = 1>, fillcolor="#ea9a61"] ;
104 -> 105 ;
106 [label=<entropy = 0.971<br/>samples = 3<br/>value = [2, 3]<br/>class = 0>, fillcolor="#bddef6"] ;
104 -> 106 ;
107 [label=<smoking &le; 0.5<br/>entropy = 0.998<br/>samples = 35<br/>value = [20, 22]<br/>class = 0>, fillcolor="#edf6fd"] ;
101 -> 107 ;
108 [label=<genetic_risk &le; 0.5<br/>entropy = 0.863<br/>samples = 24<br/>value = [20, 8]<br/>class = 1>, fillcolor="#efb388"] ;
107 -> 108 ;
109 [label=<alcohol_intake &le; 3.247<br/>entropy = 0.61<br/>samples = 18<br/>value = [17, 3]<br/>class = 1>, fillcolor="#ea975c"] ;
108 -> 109 ;
110 [label=<alcohol_intake &le; 2.903<br/>entropy = 0.918<br/>samples = 6<br/>value = [4, 2]<br/>class = 1>, fillcolor="#f2c09c"] ;
109 -> 110 ;
111 [label=<entropy = 0.0<br/>samples = 3<br/>value = [3, 0]<br/>class = 1>, fillcolor="#e58139"] ;
110 -> 111 ;
112 [label=<entropy = 0.918<br/>samples = 3<br/>value = [1, 2]<br/>class = 0>, fillcolor="#9ccef2"] ;
110 -> 112 ;
113 [label=<bmi &le; 32.366<br/>entropy = 0.371<br/>samples = 12<br/>value = [13, 1]<br/>class = 1>, fillcolor="#e78b48"] ;
109 -> 113 ;
114 [label=<entropy = 0.811<br/>samples = 3<br/>value = [3, 1]<br/>class = 1>, fillcolor="#eeab7b"] ;
113 -> 114 ;
115 [label=<entropy = 0.0<br/>samples = 9<br/>value = [10, 0]<br/>class = 1>, fillcolor="#e58139"] ;
113 -> 115 ;
116 [label=<alcohol_intake &le; 4.285<br/>entropy = 0.954<br/>samples = 6<br/>value = [3, 5]<br/>class = 0>, fillcolor="#b0d8f5"] ;
108 -> 116 ;
117 [label=<entropy = 0.0<br/>samples = 3<br/>value = [0, 4]<br/>class = 0>, fillcolor="#399de5"] ;
116 -> 117 ;
118 [label=<entropy = 0.811<br/>samples = 3<br/>value = [3, 1]<br/>class = 1>, fillcolor="#eeab7b"] ;
116 -> 118 ;
119 [label=<entropy = 0.0<br/>samples = 11<br/>value = [0, 14]<br/>class = 0>, fillcolor="#399de5"] ;
107 -> 119 ;
120 [label=<smoking &le; 0.5<br/>entropy = 1.0<br/>samples = 180<br/>value = [141, 134]<br/>class = 1>, fillcolor="#fef9f5"] ;
82 -> 120 ;
121 [label=<bmi &le; 24.002<br/>entropy = 0.967<br/>samples = 126<br/>value = [114.0, 74.0]<br/>class = 1>, fillcolor="#f6d3ba"] ;
120 -> 121 ;
122 [label=<genetic_risk &le; 0.5<br/>entropy = 0.493<br/>samples = 46<br/>value = [58, 7]<br/>class = 1>, fillcolor="#e89051"] ;
121 -> 122 ;
123 [label=<alcohol_intake &le; 3.99<br/>entropy = 0.624<br/>samples = 32<br/>value = [38, 7]<br/>class = 1>, fillcolor="#ea985d"] ;
122 -> 123 ;
124 [label=<alcohol_intake &le; 2.511<br/>entropy = 0.722<br/>samples = 25<br/>value = [28, 7]<br/>class = 1>, fillcolor="#eca06a"] ;
123 -> 124 ;
125 [label=<physical_activity &le; 2.268<br/>entropy = 0.31<br/>samples = 16<br/>value = [17, 1]<br/>class = 1>, fillcolor="#e78845"] ;
124 -> 125 ;
126 [label=<entropy = 0.811<br/>samples = 4<br/>value = [3, 1]<br/>class = 1>, fillcolor="#eeab7b"] ;
125 -> 126 ;
127 [label=<entropy = 0.0<br/>samples = 12<br/>value = [14, 0]<br/>class = 1>, fillcolor="#e58139"] ;
125 -> 127 ;
128 [label=<bmi &le; 20.408<br/>entropy = 0.937<br/>samples = 9<br/>value = [11, 6]<br/>class = 1>, fillcolor="#f3c6a5"] ;
124 -> 128 ;
129 [label=<entropy = 1.0<br/>samples = 5<br/>value = [4, 4]<br/>class = 1>, fillcolor="#ffffff"] ;
128 -> 129 ;
130 [label=<entropy = 0.764<br/>samples = 4<br/>value = [7, 2]<br/>class = 1>, fillcolor="#eca572"] ;
128 -> 130 ;
131 [label=<entropy = 0.0<br/>samples = 7<br/>value = [10, 0]<br/>class = 1>, fillcolor="#e58139"] ;
123 -> 131 ;
132 [label=<entropy = 0.0<br/>samples = 14<br/>value = [20, 0]<br/>class = 1>, fillcolor="#e58139"] ;
122 -> 132 ;
133 [label=<alcohol_intake &le; 2.495<br/>entropy = 0.994<br/>samples = 80<br/>value = [56, 67]<br/>class = 0>, fillcolor="#deeffb"] ;
121 -> 133 ;
134 [label=<age &le; 76.5<br/>entropy = 0.811<br/>samples = 38<br/>value = [48, 16]<br/>class = 1>, fillcolor="#eeab7b"] ;
133 -> 134 ;
135 [label=<age &le; 51.5<br/>entropy = 0.884<br/>samples = 32<br/>value = [37, 16]<br/>class = 1>, fillcolor="#f0b78f"] ;
134 -> 135 ;
136 [label=<age &le; 49.5<br/>entropy = 0.414<br/>samples = 9<br/>value = [11, 1]<br/>class = 1>, fillcolor="#e78c4b"] ;
135 -> 136 ;
137 [label=<entropy = 0.65<br/>samples = 5<br/>value = [5, 1]<br/>class = 1>, fillcolor="#ea9a61"] ;
136 -> 137 ;
138 [label=<entropy = 0.0<br/>samples = 4<br/>value = [6, 0]<br/>class = 1>, fillcolor="#e58139"] ;
136 -> 138 ;
139 [label=<physical_activity &le; 1.341<br/>entropy = 0.947<br/>samples = 23<br/>value = [26, 15]<br/>class = 1>, fillcolor="#f4caab"] ;
135 -> 139 ;
140 [label=<entropy = 0.0<br/>samples = 5<br/>value = [0, 10]<br/>class = 0>, fillcolor="#399de5"] ;
139 -> 140 ;
141 [label=<bmi &le; 34.478<br/>entropy = 0.637<br/>samples = 18<br/>value = [26, 5]<br/>class = 1>, fillcolor="#ea995f"] ;
139 -> 141 ;
142 [label=<age &le; 62.5<br/>entropy = 0.811<br/>samples = 13<br/>value = [15, 5]<br/>class = 1>, fillcolor="#eeab7b"] ;
141 -> 142 ;
143 [label=<genetic_risk &le; 0.5<br/>entropy = 0.961<br/>samples = 7<br/>value = [8, 5]<br/>class = 1>, fillcolor="#f5d0b5"] ;
142 -> 143 ;
144 [label=<entropy = 0.971<br/>samples = 3<br/>value = [3, 2]<br/>class = 1>, fillcolor="#f6d5bd"] ;
143 -> 144 ;
145 [label=<entropy = 0.954<br/>samples = 4<br/>value = [5, 3]<br/>class = 1>, fillcolor="#f5cdb0"] ;
143 -> 145 ;
146 [label=<entropy = 0.0<br/>samples = 6<br/>value = [7, 0]<br/>class = 1>, fillcolor="#e58139"] ;
142 -> 146 ;
147 [label=<entropy = 0.0<br/>samples = 5<br/>value = [11, 0]<br/>class = 1>, fillcolor="#e58139"] ;
141 -> 147 ;
148 [label=<entropy = 0.0<br/>samples = 6<br/>value = [11, 0]<br/>class = 1>, fillcolor="#e58139"] ;
134 -> 148 ;
149 [label=<genetic_risk &le; 0.5<br/>entropy = 0.573<br/>samples = 42<br/>value = [8, 51]<br/>class = 0>, fillcolor="#58ace9"] ;
133 -> 149 ;
150 [label=<bmi &le; 28.044<br/>entropy = 0.607<br/>samples = 32<br/>value = [7, 40]<br/>class = 0>, fillcolor="#5caeea"] ;
149 -> 150 ;
151 [label=<entropy = 0.65<br/>samples = 5<br/>value = [5, 1]<br/>class = 1>, fillcolor="#ea9a61"] ;
150 -> 151 ;
152 [label=<age &le; 52.5<br/>entropy = 0.281<br/>samples = 27<br/>value = [2, 39]<br/>class = 0>, fillcolor="#43a2e6"] ;
150 -> 152 ;
153 [label=<entropy = 1.0<br/>samples = 3<br/>value = [2, 2]<br/>class = 1>, fillcolor="#ffffff"] ;
152 -> 153 ;
154 [label=<entropy = 0.0<br/>samples = 24<br/>value = [0, 37]<br/>class = 0>, fillcolor="#399de5"] ;
152 -> 154 ;
155 [label=<age &le; 61.5<br/>entropy = 0.414<br/>samples = 10<br/>value = [1, 11]<br/>class = 0>, fillcolor="#4ba6e7"] ;
149 -> 155 ;
156 [label=<entropy = 0.918<br/>samples = 3<br/>value = [1, 2]<br/>class = 0>, fillcolor="#9ccef2"] ;
155 -> 156 ;
157 [label=<entropy = 0.0<br/>samples = 7<br/>value = [0, 9]<br/>class = 0>, fillcolor="#399de5"] ;
155 -> 157 ;
158 [label=<alcohol_intake &le; 2.522<br/>entropy = 0.894<br/>samples = 54<br/>value = [27.0, 60.0]<br/>class = 0>, fillcolor="#92c9f1"] ;
120 -> 158 ;
159 [label=<alcohol_intake &le; 0.577<br/>entropy = 0.952<br/>samples = 25<br/>value = [27, 16]<br/>class = 1>, fillcolor="#f4ccae"] ;
158 -> 159 ;
160 [label=<entropy = 0.469<br/>samples = 5<br/>value = [9, 1]<br/>class = 1>, fillcolor="#e88f4f"] ;
159 -> 160 ;
161 [label=<age &le; 67.5<br/>entropy = 0.994<br/>samples = 20<br/>value = [18, 15]<br/>class = 1>, fillcolor="#fbeade"] ;
159 -> 161 ;
162 [label=<physical_activity &le; 2.808<br/>entropy = 0.991<br/>samples = 11<br/>value = [8, 10]<br/>class = 0>, fillcolor="#d7ebfa"] ;
161 -> 162 ;
163 [label=<entropy = 0.0<br/>samples = 3<br/>value = [0, 7]<br/>class = 0>, fillcolor="#399de5"] ;
162 -> 163 ;
164 [label=<physical_activity &le; 5.579<br/>entropy = 0.845<br/>samples = 8<br/>value = [8, 3]<br/>class = 1>, fillcolor="#efb083"] ;
162 -> 164 ;
165 [label=<entropy = 0.985<br/>samples = 5<br/>value = [4, 3]<br/>class = 1>, fillcolor="#f8e0ce"] ;
164 -> 165 ;
166 [label=<entropy = 0.0<br/>samples = 3<br/>value = [4, 0]<br/>class = 1>, fillcolor="#e58139"] ;
164 -> 166 ;
167 [label=<bmi &le; 25.684<br/>entropy = 0.918<br/>samples = 9<br/>value = [10, 5]<br/>class = 1>, fillcolor="#f2c09c"] ;
161 -> 167 ;
168 [label=<entropy = 0.0<br/>samples = 4<br/>value = [9, 0]<br/>class = 1>, fillcolor="#e58139"] ;
167 -> 168 ;
169 [label=<entropy = 0.65<br/>samples = 5<br/>value = [1, 5]<br/>class = 0>, fillcolor="#61b1ea"] ;
167 -> 169 ;
170 [label=<entropy = 0.0<br/>samples = 29<br/>value = [0, 44]<br/>class = 0>, fillcolor="#399de5"] ;
158 -> 170 ;
171 [label=<alcohol_intake &le; 2.117<br/>entropy = 0.451<br/>samples = 34<br/>value = [5, 48]<br/>class = 0>, fillcolor="#4ea7e8"] ;
81 -> 171 ;
172 [label=<entropy = 0.0<br/>samples = 15<br/>value = [0, 26]<br/>class = 0>, fillcolor="#399de5"] ;
171 -> 172 ;
173 [label=<alcohol_intake &le; 3.231<br/>entropy = 0.691<br/>samples = 19<br/>value = [5, 22]<br/>class = 0>, fillcolor="#66b3eb"] ;
171 -> 173 ;
174 [label=<bmi &le; 32.899<br/>entropy = 0.918<br/>samples = 9<br/>value = [5, 10]<br/>class = 0>, fillcolor="#9ccef2"] ;
173 -> 174 ;
175 [label=<physical_activity &le; 4.683<br/>entropy = 1.0<br/>samples = 6<br/>value = [5, 5]<br/>class = 1>, fillcolor="#ffffff"] ;
174 -> 175 ;
176 [label=<entropy = 0.811<br/>samples = 3<br/>value = [1, 3]<br/>class = 0>, fillcolor="#7bbeee"] ;
175 -> 176 ;
177 [label=<entropy = 0.918<br/>samples = 3<br/>value = [4, 2]<br/>class = 1>, fillcolor="#f2c09c"] ;
175 -> 177 ;
178 [label=<entropy = 0.0<br/>samples = 3<br/>value = [0, 5]<br/>class = 0>, fillcolor="#399de5"] ;
174 -> 178 ;
179 [label=<entropy = 0.0<br/>samples = 10<br/>value = [0, 12]<br/>class = 0>, fillcolor="#399de5"] ;
173 -> 179 ;
180 [label=<physical_activity &le; 9.642<br/>entropy = 0.284<br/>samples = 59<br/>value = [5, 96]<br/>class = 0>, fillcolor="#43a2e6"] ;
80 -> 180 ;
181 [label=<genetic_risk &le; 0.5<br/>entropy = 0.202<br/>samples = 56<br/>value = [3, 92]<br/>class = 0>, fillcolor="#3fa0e6"] ;
180 -> 181 ;
182 [label=<bmi &le; 23.971<br/>entropy = 0.314<br/>samples = 37<br/>value = [3, 50]<br/>class = 0>, fillcolor="#45a3e7"] ;
181 -> 182 ;
183 [label=<age &le; 67.5<br/>entropy = 0.61<br/>samples = 13<br/>value = [3, 17]<br/>class = 0>, fillcolor="#5caeea"] ;
182 -> 183 ;
184 [label=<entropy = 0.985<br/>samples = 4<br/>value = [3, 4]<br/>class = 0>, fillcolor="#cee6f8"] ;
183 -> 184 ;
185 [label=<entropy = 0.0<br/>samples = 9<br/>value = [0, 13]<br/>class = 0>, fillcolor="#399de5"] ;
183 -> 185 ;
186 [label=<entropy = 0.0<br/>samples = 24<br/>value = [0, 33]<br/>class = 0>, fillcolor="#399de5"] ;
182 -> 186 ;
187 [label=<entropy = 0.0<br/>samples = 19<br/>value = [0, 42]<br/>class = 0>, fillcolor="#399de5"] ;
181 -> 187 ;
188 [label=<entropy = 0.918<br/>samples = 3<br/>value = [2, 4]<br/>class = 0>, fillcolor="#9ccef2"] ;
180 -> 188 ;
}
